digraph Tree {
node [shape=box, style="filled, rounded", color="black", fontname=helvetica] ;
edge [fontname=helvetica] ;
0 [label="sepal length (cm) <= 5.45\ngini = 0.66\nsamples = 97\nvalue = [43, 59, 48]\nclass = versicolor", fillcolor="#eafcf1"] ;
1 [label="petal length (cm) <= 2.45\ngini = 0.37\nsamples = 34\nvalue = [40, 10, 2]\nclass = setosa", fillcolor="#eca572"] ;
0 -> 1 [labeldistance=2.5, labelangle=45, headlabel="True"] ;
2 [label="gini = 0.0\nsamples = 27\nvalue = [40, 0, 0]\nclass = setosa", fillcolor="#e58139"] ;
1 -> 2 ;
3 [label="sepal length (cm) <= 4.95\ngini = 0.28\nsamples = 7\nvalue = [0, 10, 2]\nclass = versicolor", fillcolor="#61ea9a"] ;
1 -> 3 ;
4 [label="petal length (cm) <= 3.9\ngini = 0.44\nsamples = 2\nvalue = [0, 1, 2]\nclass = virginica", fillcolor="#c09cf2"] ;
3 -> 4 ;
5 [label="gini = 0.0\nsamples = 1\nvalue = [0, 1, 0]\nclass = versicolor", fillcolor="#39e581"] ;
4 -> 5 ;
6 [label="gini = 0.0\nsamples = 1\nvalue = [0, 0, 2]\nclass = virginica", fillcolor="#8139e5"] ;
4 -> 6 ;
7 [label="gini = 0.0\nsamples = 5\nvalue = [0, 9, 0]\nclass = versicolor", fillcolor="#39e581"] ;
3 -> 7 ;
8 [label="petal length (cm) <= 4.75\ngini = 0.53\nsamples = 63\nvalue = [3, 49, 46]\nclass = versicolor", fillcolor="#f4fef8"] ;
0 -> 8 [labeldistance=2.5, labelangle=-45, headlabel="False"] ;
9 [label="petal length (cm) <= 2.45\ngini = 0.12\nsamples = 31\nvalue = [3, 43, 0]\nclass = versicolor", fillcolor="#47e78a"] ;
8 -> 9 ;
10 [label="gini = 0.0\nsamples = 3\nvalue = [3, 0, 0]\nclass = setosa", fillcolor="#e58139"] ;
9 -> 10 ;
11 [label="gini = 0.0\nsamples = 28\nvalue = [0, 43, 0]\nclass = versicolor", fillcolor="#39e581"] ;
9 -> 11 ;
12 [label="sepal length (cm) <= 5.95\ngini = 0.2\nsamples = 32\nvalue = [0, 6, 46]\nclass = virginica", fillcolor="#9153e8"] ;
8 -> 12 ;
13 [label="petal length (cm) <= 4.9\ngini = 0.5\nsamples = 3\nvalue = [0, 2, 2]\nclass = versicolor", fillcolor="#ffffff"] ;
12 -> 13 ;
14 [label="gini = 0.0\nsamples = 1\nvalue = [0, 2, 0]\nclass = versicolor", fillcolor="#39e581"] ;
13 -> 14 ;
15 [label="gini = 0.0\nsamples = 2\nvalue = [0, 0, 2]\nclass = virginica", fillcolor="#8139e5"] ;
13 -> 15 ;
16 [label="petal width (cm) <= 1.75\ngini = 0.15\nsamples = 29\nvalue = [0, 4, 44]\nclass = virginica", fillcolor="#8c4be7"] ;
12 -> 16 ;
17 [label="sepal width (cm) <= 2.35\ngini = 0.49\nsamples = 4\nvalue = [0, 4, 3]\nclass = versicolor", fillcolor="#cef8e0"] ;
16 -> 17 ;
18 [label="gini = 0.0\nsamples = 1\nvalue = [0, 0, 2]\nclass = virginica", fillcolor="#8139e5"] ;
17 -> 18 ;
19 [label="sepal length (cm) <= 6.2\ngini = 0.32\nsamples = 3\nvalue = [0, 4, 1]\nclass = versicolor", fillcolor="#6aeca0"] ;
17 -> 19 ;
20 [label="gini = 0.0\nsamples = 1\nvalue = [0, 0, 1]\nclass = virginica", fillcolor="#8139e5"] ;
19 -> 20 ;
21 [label="gini = 0.0\nsamples = 2\nvalue = [0, 4, 0]\nclass = versicolor", fillcolor="#39e581"] ;
19 -> 21 ;
22 [label="gini = 0.0\nsamples = 25\nvalue = [0, 0, 41]\nclass = virginica", fillcolor="#8139e5"] ;
16 -> 22 ;
}